digraph Tree {
node [shape=box, style="filled, rounded", color="black", fontname="helvetica"] ;
edge [fontname="helvetica"] ;
0 [label="node #0\nprevious_loan_defaults_on_file <= 0.5\ngini = 0.5\nsamples = 20000\nvalue = [10000, 10000]\nclass = Loan approved", fillcolor="#ffffff"] ;
1 [label="node #1\nloan_percent_income <= 0.245\ngini = 0.381\nsamples = 13448\nvalue = [3448, 10000]\nclass = Loan Denied", fillcolor="#7dbfee"] ;
0 -> 1 [labeldistance=2.5, labelangle=45, headlabel="True"] ;
2 [label="node #2\nloan_int_rate <= 13.615\ngini = 0.455\nsamples = 9376\nvalue = [3287, 6089]\nclass = Loan Denied", fillcolor="#a4d2f3"] ;
1 -> 2 ;
3 [label="node #3\nperson_income <= 42675.5\ngini = 0.5\nsamples = 5835\nvalue = [2934.0, 2901.0]\nclass = Loan approved", fillcolor="#fffefd"] ;
2 -> 3 ;
4 [label="node #4\nperson_income <= 24707.5\ngini = 0.356\nsamples = 1571\nvalue = [364, 1207]\nclass = Loan Denied", fillcolor="#75bbed"] ;
3 -> 4 ;
5 [label="node #5\nloan_percent_income <= 0.115\ngini = 0.064\nsamples = 575\nvalue = [19, 556]\nclass = Loan Denied", fillcolor="#40a0e6"] ;
4 -> 5 ;
6 [label="node #6\nloan_percent_income <= 0.085\ngini = 0.406\nsamples = 60\nvalue = [17, 43]\nclass = Loan Denied", fillcolor="#87c4ef"] ;
5 -> 6 ;
7 [label="(...)", fillcolor="#C0C0C0"] ;
6 -> 7 ;
18 [label="(...)", fillcolor="#C0C0C0"] ;
6 -> 18 ;
29 [label="node #29\nperson_age <= 61.0\ngini = 0.008\nsamples = 515\nvalue = [2, 513]\nclass = Loan Denied", fillcolor="#3a9de5"] ;
5 -> 29 ;
30 [label="(...)", fillcolor="#C0C0C0"] ;
29 -> 30 ;
37 [label="(...)", fillcolor="#C0C0C0"] ;
29 -> 37 ;
38 [label="node #38\nperson_home_ownership_OWN <= 0.5\ngini = 0.453\nsamples = 996\nvalue = [345, 651]\nclass = Loan Denied", fillcolor="#a2d1f3"] ;
4 -> 38 ;
39 [label="node #39\nloan_intent_HOMEIMPROVEMENT <= 0.5\ngini = 0.434\nsamples = 953\nvalue = [303, 650]\nclass = Loan Denied", fillcolor="#95cbf1"] ;
38 -> 39 ;
40 [label="(...)", fillcolor="#C0C0C0"] ;
39 -> 40 ;
435 [label="(...)", fillcolor="#C0C0C0"] ;
39 -> 435 ;
460 [label="node #460\nperson_income <= 24783.5\ngini = 0.045\nsamples = 43\nvalue = [42, 1]\nclass = Loan approved", fillcolor="#e6843e"] ;
38 -> 460 ;
461 [label="(...)", fillcolor="#C0C0C0"] ;
460 -> 461 ;
462 [label="(...)", fillcolor="#C0C0C0"] ;
460 -> 462 ;
463 [label="node #463\nloan_int_rate <= 11.005\ngini = 0.479\nsamples = 4264\nvalue = [2570, 1694]\nclass = Loan approved", fillcolor="#f6d4bc"] ;
3 -> 463 ;
464 [label="node #464\nperson_income <= 72282.5\ngini = 0.404\nsamples = 2160\nvalue = [1554, 606]\nclass = Loan approved", fillcolor="#efb286"] ;
463 -> 464 ;
465 [label="node #465\nperson_home_ownership_OWN <= 0.5\ngini = 0.475\nsamples = 964\nvalue = [589, 375]\nclass = Loan approved", fillcolor="#f6d1b7"] ;
464 -> 465 ;
466 [label="(...)", fillcolor="#C0C0C0"] ;
465 -> 466 ;
911 [label="(...)", fillcolor="#C0C0C0"] ;
465 -> 911 ;
912 [label="node #912\nloan_int_rate <= 8.34\ngini = 0.312\nsamples = 1196\nvalue = [965, 231]\nclass = Loan approved", fillcolor="#eb9f68"] ;
464 -> 912 ;
913 [label="(...)", fillcolor="#C0C0C0"] ;
912 -> 913 ;
1064 [label="(...)", fillcolor="#C0C0C0"] ;
912 -> 1064 ;
1327 [label="node #1327\nperson_income <= 72648.5\ngini = 0.499\nsamples = 2104\nvalue = [1016, 1088]\nclass = Loan Denied", fillcolor="#f2f9fd"] ;
463 -> 1327 ;
1328 [label="node #1328\nperson_home_ownership_OWN <= 0.5\ngini = 0.47\nsamples = 996\nvalue = [377, 619]\nclass = Loan Denied", fillcolor="#b2d9f5"] ;
1327 -> 1328 ;
1329 [label="(...)", fillcolor="#C0C0C0"] ;
1328 -> 1329 ;
1734 [label="(...)", fillcolor="#C0C0C0"] ;
1328 -> 1734 ;
1735 [label="node #1735\nloan_intent_DEBTCONSOLIDATION <= 0.5\ngini = 0.488\nsamples = 1108\nvalue = [639, 469]\nclass = Loan approved", fillcolor="#f8ddca"] ;
1327 -> 1735 ;
1736 [label="(...)", fillcolor="#C0C0C0"] ;
1735 -> 1736 ;
2143 [label="(...)", fillcolor="#C0C0C0"] ;
1735 -> 2143 ;
2254 [label="node #2254\nloan_int_rate <= 14.355\ngini = 0.18\nsamples = 3541\nvalue = [353, 3188]\nclass = Loan Denied", fillcolor="#4fa8e8"] ;
2 -> 2254 ;
2255 [label="node #2255\nperson_income <= 96362.5\ngini = 0.354\nsamples = 621\nvalue = [143, 478]\nclass = Loan Denied", fillcolor="#74baed"] ;
2254 -> 2255 ;
2256 [label="node #2256\nperson_home_ownership_OWN <= 0.5\ngini = 0.306\nsamples = 530\nvalue = [100.0, 430.0]\nclass = Loan Denied", fillcolor="#67b4eb"] ;
2255 -> 2256 ;
2257 [label="node #2257\nloan_intent_EDUCATION <= 0.5\ngini = 0.289\nsamples = 514\nvalue = [90, 424]\nclass = Loan Denied", fillcolor="#63b2eb"] ;
2256 -> 2257 ;
2258 [label="(...)", fillcolor="#C0C0C0"] ;
2257 -> 2258 ;
2393 [label="(...)", fillcolor="#C0C0C0"] ;
2257 -> 2393 ;
2440 [label="node #2440\nperson_income <= 26781.0\ngini = 0.469\nsamples = 16\nvalue = [10, 6]\nclass = Loan approved", fillcolor="#f5cdb0"] ;
2256 -> 2440 ;
2441 [label="(...)", fillcolor="#C0C0C0"] ;
2440 -> 2441 ;
2442 [label="(...)", fillcolor="#C0C0C0"] ;
2440 -> 2442 ;
2443 [label="node #2443\nloan_intent_DEBTCONSOLIDATION <= 0.5\ngini = 0.498\nsamples = 91\nvalue = [43, 48]\nclass = Loan Denied", fillcolor="#eaf5fc"] ;
2255 -> 2443 ;
2444 [label="node #2444\nloan_int_rate <= 13.685\ngini = 0.492\nsamples = 73\nvalue = [41, 32]\nclass = Loan approved", fillcolor="#f9e3d4"] ;
2443 -> 2444 ;
2445 [label="(...)", fillcolor="#C0C0C0"] ;
2444 -> 2445 ;
2446 [label="(...)", fillcolor="#C0C0C0"] ;
2444 -> 2446 ;
2483 [label="node #2483\nloan_int_rate <= 13.74\ngini = 0.198\nsamples = 18\nvalue = [2, 16]\nclass = Loan Denied", fillcolor="#52a9e8"] ;
2443 -> 2483 ;
2484 [label="(...)", fillcolor="#C0C0C0"] ;
2483 -> 2484 ;
2485 [label="(...)", fillcolor="#C0C0C0"] ;
2483 -> 2485 ;
2488 [label="node #2488\nperson_home_ownership_OWN <= 0.5\ngini = 0.133\nsamples = 2920\nvalue = [210, 2710]\nclass = Loan Denied", fillcolor="#48a5e7"] ;
2254 -> 2488 ;
2489 [label="node #2489\nloan_intent_EDUCATION <= 0.5\ngini = 0.119\nsamples = 2855\nvalue = [182.0, 2673.0]\nclass = Loan Denied", fillcolor="#46a4e7"] ;
2488 -> 2489 ;
2490 [label="node #2490\nloan_intent_MEDICAL <= 0.5\ngini = 0.099\nsamples = 2501\nvalue = [130, 2371]\nclass = Loan Denied", fillcolor="#44a2e6"] ;
2489 -> 2490 ;
2491 [label="(...)", fillcolor="#C0C0C0"] ;
2490 -> 2491 ;
2800 [label="(...)", fillcolor="#C0C0C0"] ;
2490 -> 2800 ;
2845 [label="node #2845\nloan_int_rate <= 15.775\ngini = 0.251\nsamples = 354\nvalue = [52, 302]\nclass = Loan Denied", fillcolor="#5baee9"] ;
2489 -> 2845 ;
2846 [label="(...)", fillcolor="#C0C0C0"] ;
2845 -> 2846 ;
2917 [label="(...)", fillcolor="#C0C0C0"] ;
2845 -> 2917 ;
2956 [label="node #2956\nloan_int_rate <= 16.305\ngini = 0.49\nsamples = 65\nvalue = [28, 37]\nclass = Loan Denied", fillcolor="#cfe7f9"] ;
2488 -> 2956 ;
2957 [label="node #2957\nperson_income <= 24959.5\ngini = 0.456\nsamples = 37\nvalue = [24, 13]\nclass = Loan approved", fillcolor="#f3c5a4"] ;
2956 -> 2957 ;
2958 [label="(...)", fillcolor="#C0C0C0"] ;
2957 -> 2958 ;
2959 [label="(...)", fillcolor="#C0C0C0"] ;
2957 -> 2959 ;
2960 [label="node #2960\nperson_emp_exp <= 17.5\ngini = 0.245\nsamples = 28\nvalue = [4, 24]\nclass = Loan Denied", fillcolor="#5aade9"] ;
2956 -> 2960 ;
2961 [label="(...)", fillcolor="#C0C0C0"] ;
2960 -> 2961 ;
2974 [label="(...)", fillcolor="#C0C0C0"] ;
2960 -> 2974 ;
2975 [label="node #2975\nperson_home_ownership_MORTGAGE <= 0.5\ngini = 0.076\nsamples = 4072\nvalue = [161, 3911]\nclass = Loan Denied", fillcolor="#41a1e6"] ;
1 -> 2975 ;
2976 [label="node #2976\nperson_home_ownership_OWN <= 0.5\ngini = 0.027\nsamples = 3632\nvalue = [49, 3583]\nclass = Loan Denied", fillcolor="#3c9ee5"] ;
2975 -> 2976 ;
2977 [label="node #2977\nloan_percent_income <= 0.255\ngini = 0.004\nsamples = 3494\nvalue = [7.0, 3487.0]\nclass = Loan Denied", fillcolor="#399de5"] ;
2976 -> 2977 ;
2978 [label="node #2978\nperson_income <= 95058.0\ngini = 0.043\nsamples = 319\nvalue = [7, 312]\nclass = Loan Denied", fillcolor="#3d9fe6"] ;
2977 -> 2978 ;
2979 [label="node #2979\nloan_int_rate <= 6.87\ngini = 0.032\nsamples = 307\nvalue = [5, 302]\nclass = Loan Denied", fillcolor="#3c9fe5"] ;
2978 -> 2979 ;
2980 [label="(...)", fillcolor="#C0C0C0"] ;
2979 -> 2980 ;
2983 [label="(...)", fillcolor="#C0C0C0"] ;
2979 -> 2983 ;
2998 [label="node #2998\nloan_amnt <= 24039.5\ngini = 0.278\nsamples = 12\nvalue = [2, 10]\nclass = Loan Denied", fillcolor="#61b1ea"] ;
2978 -> 2998 ;
2999 [label="(...)", fillcolor="#C0C0C0"] ;
2998 -> 2999 ;
3000 [label="(...)", fillcolor="#C0C0C0"] ;
2998 -> 3000 ;
3001 [label="node #3001\ngini = 0.0\nsamples = 3175\nvalue = [0, 3175]\nclass = Loan Denied", fillcolor="#399de5"] ;
2977 -> 3001 ;
3002 [label="node #3002\nperson_income <= 25472.5\ngini = 0.423\nsamples = 138\nvalue = [42, 96]\nclass = Loan Denied", fillcolor="#90c8f0"] ;
2976 -> 3002 ;
3003 [label="node #3003\ngini = 0.0\nsamples = 79\nvalue = [0, 79]\nclass = Loan Denied", fillcolor="#399de5"] ;
3002 -> 3003 ;
3004 [label="node #3004\nloan_int_rate <= 15.65\ngini = 0.41\nsamples = 59\nvalue = [42, 17]\nclass = Loan approved", fillcolor="#f0b489"] ;
3002 -> 3004 ;
3005 [label="node #3005\nloan_amnt <= 24125.0\ngini = 0.046\nsamples = 42\nvalue = [41, 1]\nclass = Loan approved", fillcolor="#e6843e"] ;
3004 -> 3005 ;
3006 [label="(...)", fillcolor="#C0C0C0"] ;
3005 -> 3006 ;
3007 [label="(...)", fillcolor="#C0C0C0"] ;
3005 -> 3007 ;
3010 [label="node #3010\nperson_income <= 92246.0\ngini = 0.111\nsamples = 17\nvalue = [1, 16]\nclass = Loan Denied", fillcolor="#45a3e7"] ;
3004 -> 3010 ;
3011 [label="(...)", fillcolor="#C0C0C0"] ;
3010 -> 3011 ;
3012 [label="(...)", fillcolor="#C0C0C0"] ;
3010 -> 3012 ;
3015 [label="node #3015\nloan_int_rate <= 13.775\ngini = 0.38\nsamples = 440\nvalue = [112.0, 328.0]\nclass = Loan Denied", fillcolor="#7dbeee"] ;
2975 -> 3015 ;
3016 [label="node #3016\nperson_income <= 36857.0\ngini = 0.472\nsamples = 262\nvalue = [100, 162]\nclass = Loan Denied", fillcolor="#b3d9f5"] ;
3015 -> 3016 ;
3017 [label="node #3017\nperson_emp_exp <= 19.5\ngini = 0.127\nsamples = 44\nvalue = [3, 41]\nclass = Loan Denied", fillcolor="#47a4e7"] ;
3016 -> 3017 ;
3018 [label="node #3018\nperson_age <= 34.5\ngini = 0.089\nsamples = 43\nvalue = [2, 41]\nclass = Loan Denied", fillcolor="#43a2e6"] ;
3017 -> 3018 ;
3019 [label="(...)", fillcolor="#C0C0C0"] ;
3018 -> 3019 ;
3024 [label="(...)", fillcolor="#C0C0C0"] ;
3018 -> 3024 ;
3027 [label="node #3027\ngini = 0.0\nsamples = 1\nvalue = [1, 0]\nclass = Loan approved", fillcolor="#e58139"] ;
3017 -> 3027 ;
3028 [label="node #3028\nloan_int_rate <= 9.7\ngini = 0.494\nsamples = 218\nvalue = [97, 121]\nclass = Loan Denied", fillcolor="#d8ecfa"] ;
3016 -> 3028 ;
3029 [label="node #3029\nloan_intent_MEDICAL <= 0.5\ngini = 0.483\nsamples = 49\nvalue = [29, 20]\nclass = Loan approved", fillcolor="#f7d8c2"] ;
3028 -> 3029 ;
3030 [label="(...)", fillcolor="#C0C0C0"] ;
3029 -> 3030 ;
3063 [label="(...)", fillcolor="#C0C0C0"] ;
3029 -> 3063 ;
3066 [label="node #3066\nloan_intent_DEBTCONSOLIDATION <= 0.5\ngini = 0.481\nsamples = 169\nvalue = [68.0, 101.0]\nclass = Loan Denied", fillcolor="#bedff7"] ;
3028 -> 3066 ;
3067 [label="(...)", fillcolor="#C0C0C0"] ;
3066 -> 3067 ;
3154 [label="(...)", fillcolor="#C0C0C0"] ;
3066 -> 3154 ;
3165 [label="node #3165\nloan_intent_EDUCATION <= 0.5\ngini = 0.126\nsamples = 178\nvalue = [12, 166]\nclass = Loan Denied", fillcolor="#47a4e7"] ;
3015 -> 3165 ;
3166 [label="node #3166\nloan_int_rate <= 15.63\ngini = 0.081\nsamples = 165\nvalue = [7, 158]\nclass = Loan Denied", fillcolor="#42a1e6"] ;
3165 -> 3166 ;
3167 [label="node #3167\nloan_amnt <= 33500.0\ngini = 0.171\nsamples = 74\nvalue = [7, 67]\nclass = Loan Denied", fillcolor="#4ea7e8"] ;
3166 -> 3167 ;
3168 [label="(...)", fillcolor="#C0C0C0"] ;
3167 -> 3168 ;
3189 [label="(...)", fillcolor="#C0C0C0"] ;
3167 -> 3189 ;
3190 [label="node #3190\ngini = 0.0\nsamples = 91\nvalue = [0, 91]\nclass = Loan Denied", fillcolor="#399de5"] ;
3166 -> 3190 ;
3191 [label="node #3191\ncb_person_cred_hist_length <= 2.5\ngini = 0.473\nsamples = 13\nvalue = [5, 8]\nclass = Loan Denied", fillcolor="#b5daf5"] ;
3165 -> 3191 ;
3192 [label="node #3192\ngini = 0.0\nsamples = 5\nvalue = [0, 5]\nclass = Loan Denied", fillcolor="#399de5"] ;
3191 -> 3192 ;
3193 [label="node #3193\nloan_amnt <= 29000.0\ngini = 0.469\nsamples = 8\nvalue = [5, 3]\nclass = Loan approved", fillcolor="#f5cdb0"] ;
3191 -> 3193 ;
3194 [label="(...)", fillcolor="#C0C0C0"] ;
3193 -> 3194 ;
3197 [label="(...)", fillcolor="#C0C0C0"] ;
3193 -> 3197 ;
3198 [label="node #3198\ngini = 0.0\nsamples = 6552\nvalue = [6552, 0]\nclass = Loan approved", fillcolor="#e58139"] ;
0 -> 3198 [labeldistance=2.5, labelangle=-45, headlabel="False"] ;
}